digraph Tree {
node [shape=box, style="filled", color="black"] ;
0 [label="RevolvingUtilizationOfUnsecuredLines <= 0.325\nentropy = 0.635\nsamples = 30762\nvalue = [25835, 4927]\nclass = Financially Stable", fillcolor="#e58139ce"] ;
1 [label="RevolvingUtilizationOfUnsecuredLines <= 0.137\nentropy = 0.316\nsamples = 18249\nvalue = [17207, 1042]\nclass = Financially Stable", fillcolor="#e58139f0"] ;
0 -> 1 [labeldistance=2.5, labelangle=45, headlabel="True"] ;
2 [label="NumberOfTimes90DaysLate <= 0.5\nentropy = 0.265\nsamples = 13763\nvalue = [13143, 620]\nclass = Financially Stable", fillcolor="#e58139f3"] ;
1 -> 2 ;
3 [label="NumberRealEstateLoansOrLines <= 2.5\nentropy = 0.228\nsamples = 13493\nvalue = [12995, 498]\nclass = Financially Stable", fillcolor="#e58139f5"] ;
2 -> 3 ;
4 [label="NumberOfTime30-59DaysPastDueNotWorse <= 0.5\nentropy = 0.211\nsamples = 12665\nvalue = [12243, 422]\nclass = Financially Stable", fillcolor="#e58139f6"] ;
3 -> 4 ;
5 [label="entropy = 0.167\nsamples = 11660\nvalue = [11372, 288]\nclass = Financially Stable", fillcolor="#e58139f9"] ;
4 -> 5 ;
6 [label="entropy = 0.567\nsamples = 1005\nvalue = [871, 134]\nclass = Financially Stable", fillcolor="#e58139d8"] ;
4 -> 6 ;
7 [label="NumberOfTime30-59DaysPastDueNotWorse <= 0.5\nentropy = 0.442\nsamples = 828\nvalue = [752, 76]\nclass = Financially Stable", fillcolor="#e58139e5"] ;
3 -> 7 ;
8 [label="entropy = 0.358\nsamples = 708\nvalue = [660, 48]\nclass = Financially Stable", fillcolor="#e58139ec"] ;
7 -> 8 ;
9 [label="entropy = 0.784\nsamples = 120\nvalue = [92, 28]\nclass = Financially Stable", fillcolor="#e58139b1"] ;
7 -> 9 ;
10 [label="NumberOfTime60-89DaysPastDueNotWorse <= 0.5\nentropy = 0.993\nsamples = 270\nvalue = [148, 122]\nclass = Financially Stable", fillcolor="#e581392d"] ;
2 -> 10 ;
11 [label="NumberOfTimes90DaysLate <= 1.5\nentropy = 0.952\nsamples = 199\nvalue = [125, 74]\nclass = Financially Stable", fillcolor="#e5813968"] ;
10 -> 11 ;
12 [label="entropy = 0.878\nsamples = 165\nvalue = [116, 49]\nclass = Financially Stable", fillcolor="#e5813993"] ;
11 -> 12 ;
13 [label="entropy = 0.834\nsamples = 34\nvalue = [9, 25]\nclass = Financial Distress", fillcolor="#399de5a3"] ;
11 -> 13 ;
14 [label="NumberOfOpenCreditLinesAndLoans <= 19.0\nentropy = 0.909\nsamples = 71\nvalue = [23, 48]\nclass = Financial Distress", fillcolor="#399de585"] ;
10 -> 14 ;
15 [label="entropy = 0.887\nsamples = 69\nvalue = [21, 48]\nclass = Financial Distress", fillcolor="#399de58f"] ;
14 -> 15 ;
16 [label="entropy = 0.0\nsamples = 2\nvalue = [2, 0]\nclass = Financially Stable", fillcolor="#e58139ff"] ;
14 -> 16 ;
17 [label="NumberOfTime60-89DaysPastDueNotWorse <= 0.5\nentropy = 0.45\nsamples = 4486\nvalue = [4064, 422]\nclass = Financially Stable", fillcolor="#e58139e5"] ;
1 -> 17 ;
18 [label="NumberOfTimes90DaysLate <= 0.5\nentropy = 0.411\nsamples = 4310\nvalue = [3954, 356]\nclass = Financially Stable", fillcolor="#e58139e8"] ;
17 -> 18 ;
19 [label="NumberOfTime30-59DaysPastDueNotWorse <= 0.5\nentropy = 0.378\nsamples = 4210\nvalue = [3901, 309]\nclass = Financially Stable", fillcolor="#e58139eb"] ;
18 -> 19 ;
20 [label="entropy = 0.294\nsamples = 3617\nvalue = [3430, 187]\nclass = Financially Stable", fillcolor="#e58139f1"] ;
19 -> 20 ;
21 [label="entropy = 0.733\nsamples = 593\nvalue = [471, 122]\nclass = Financially Stable", fillcolor="#e58139bd"] ;
19 -> 21 ;
22 [label="NumberRealEstateLoansOrLines <= 3.5\nentropy = 0.997\nsamples = 100\nvalue = [53, 47]\nclass = Financially Stable", fillcolor="#e581391d"] ;
18 -> 22 ;
23 [label="entropy = 0.994\nsamples = 97\nvalue = [53, 44]\nclass = Financially Stable", fillcolor="#e581392b"] ;
22 -> 23 ;
24 [label="entropy = 0.0\nsamples = 3\nvalue = [0, 3]\nclass = Financial Distress", fillcolor="#399de5ff"] ;
22 -> 24 ;
25 [label="age <= 31.5\nentropy = 0.954\nsamples = 176\nvalue = [110, 66]\nclass = Financially Stable", fillcolor="#e5813966"] ;
17 -> 25 ;
26 [label="DebtRatio <= 0.132\nentropy = 0.811\nsamples = 12\nvalue = [3, 9]\nclass = Financial Distress", fillcolor="#399de5aa"] ;
25 -> 26 ;
27 [label="entropy = 1.0\nsamples = 4\nvalue = [2, 2]\nclass = Financially Stable", fillcolor="#e5813900"] ;
26 -> 27 ;
28 [label="entropy = 0.544\nsamples = 8\nvalue = [1, 7]\nclass = Financial Distress", fillcolor="#399de5db"] ;
26 -> 28 ;
29 [label="age <= 78.5\nentropy = 0.932\nsamples = 164\nvalue = [107, 57]\nclass = Financially Stable", fillcolor="#e5813977"] ;
25 -> 29 ;
30 [label="entropy = 0.924\nsamples = 162\nvalue = [107, 55]\nclass = Financially Stable", fillcolor="#e581397c"] ;
29 -> 30 ;
31 [label="entropy = 0.0\nsamples = 2\nvalue = [0, 2]\nclass = Financial Distress", fillcolor="#399de5ff"] ;
29 -> 31 ;
32 [label="RevolvingUtilizationOfUnsecuredLines <= 0.333\nentropy = 0.894\nsamples = 12513\nvalue = [8628, 3885]\nclass = Financially Stable", fillcolor="#e581398c"] ;
0 -> 32 [labeldistance=2.5, labelangle=-45, headlabel="False"] ;
33 [label="NumberOfTime30-59DaysPastDueNotWorse <= 0.5\nentropy = 0.994\nsamples = 1154\nvalue = [524, 630]\nclass = Financial Distress", fillcolor="#399de52b"] ;
32 -> 33 ;
34 [label="MonthlyIncome <= 8000.5\nentropy = 0.951\nsamples = 564\nvalue = [355, 209]\nclass = Financially Stable", fillcolor="#e5813969"] ;
33 -> 34 ;
35 [label="NumberOfTime60-89DaysPastDueNotWorse <= 0.5\nentropy = 0.979\nsamples = 477\nvalue = [279, 198]\nclass = Financially Stable", fillcolor="#e581394a"] ;
34 -> 35 ;
36 [label="entropy = 0.947\nsamples = 399\nvalue = [253, 146]\nclass = Financially Stable", fillcolor="#e581396c"] ;
35 -> 36 ;
37 [label="entropy = 0.918\nsamples = 78\nvalue = [26, 52]\nclass = Financial Distress", fillcolor="#399de57f"] ;
35 -> 37 ;
38 [label="RevolvingUtilizationOfUnsecuredLines <= 0.33\nentropy = 0.548\nsamples = 87\nvalue = [76, 11]\nclass = Financially Stable", fillcolor="#e58139da"] ;
34 -> 38 ;
39 [label="entropy = 0.0\nsamples = 24\nvalue = [24, 0]\nclass = Financially Stable", fillcolor="#e58139ff"] ;
38 -> 39 ;
40 [label="entropy = 0.668\nsamples = 63\nvalue = [52, 11]\nclass = Financially Stable", fillcolor="#e58139c9"] ;
38 -> 40 ;
41 [label="NumberOfTime30-59DaysPastDueNotWorse <= 2.5\nentropy = 0.864\nsamples = 590\nvalue = [169, 421]\nclass = Financial Distress", fillcolor="#399de599"] ;
33 -> 41 ;
42 [label="NumberOfTime60-89DaysPastDueNotWorse <= 0.5\nentropy = 0.923\nsamples = 420\nvalue = [142, 278]\nclass = Financial Distress", fillcolor="#399de57d"] ;
41 -> 42 ;
43 [label="entropy = 0.971\nsamples = 268\nvalue = [107, 161]\nclass = Financial Distress", fillcolor="#399de556"] ;
42 -> 43 ;
44 [label="entropy = 0.778\nsamples = 152\nvalue = [35, 117]\nclass = Financial Distress", fillcolor="#399de5b3"] ;
42 -> 44 ;
45 [label="NumberOfOpenCreditLinesAndLoans <= 6.5\nentropy = 0.631\nsamples = 170\nvalue = [27, 143]\nclass = Financial Distress", fillcolor="#399de5cf"] ;
41 -> 45 ;
46 [label="entropy = 0.804\nsamples = 53\nvalue = [13, 40]\nclass = Financial Distress", fillcolor="#399de5ac"] ;
45 -> 46 ;
47 [label="entropy = 0.528\nsamples = 117\nvalue = [14, 103]\nclass = Financial Distress", fillcolor="#399de5dc"] ;
45 -> 47 ;
48 [label="NumberOfTime30-59DaysPastDueNotWorse <= 0.5\nentropy = 0.864\nsamples = 11359\nvalue = [8104, 3255]\nclass = Financially Stable", fillcolor="#e5813999"] ;
32 -> 48 ;
49 [label="RevolvingUtilizationOfUnsecuredLines <= 0.773\nentropy = 0.732\nsamples = 8001\nvalue = [6358, 1643]\nclass = Financially Stable", fillcolor="#e58139bd"] ;
48 -> 49 ;
50 [label="DebtRatio <= 0.665\nentropy = 0.559\nsamples = 4360\nvalue = [3791, 569]\nclass = Financially Stable", fillcolor="#e58139d9"] ;
49 -> 50 ;
51 [label="entropy = 0.518\nsamples = 3094\nvalue = [2735, 359]\nclass = Financially Stable", fillcolor="#e58139de"] ;
50 -> 51 ;
52 [label="entropy = 0.648\nsamples = 1266\nvalue = [1056, 210]\nclass = Financially Stable", fillcolor="#e58139cc"] ;
50 -> 52 ;
53 [label="NumberOfOpenCreditLinesAndLoans <= 1.5\nentropy = 0.875\nsamples = 3641\nvalue = [2567, 1074]\nclass = Financially Stable", fillcolor="#e5813994"] ;
49 -> 53 ;
54 [label="entropy = 0.97\nsamples = 840\nvalue = [506, 334]\nclass = Financially Stable", fillcolor="#e5813957"] ;
53 -> 54 ;
55 [label="entropy = 0.833\nsamples = 2801\nvalue = [2061, 740]\nclass = Financially Stable", fillcolor="#e58139a3"] ;
53 -> 55 ;
56 [label="NumberOfOpenCreditLinesAndLoans <= 0.5\nentropy = 0.999\nsamples = 3358\nvalue = [1746, 1612]\nclass = Financially Stable", fillcolor="#e5813914"] ;
48 -> 56 ;
57 [label="NumberOfTimes90DaysLate <= 0.5\nentropy = 0.84\nsamples = 130\nvalue = [35, 95]\nclass = Financial Distress", fillcolor="#399de5a1"] ;
56 -> 57 ;
58 [label="entropy = 0.764\nsamples = 18\nvalue = [14, 4]\nclass = Financially Stable", fillcolor="#e58139b6"] ;
57 -> 58 ;
59 [label="entropy = 0.696\nsamples = 112\nvalue = [21, 91]\nclass = Financial Distress", fillcolor="#399de5c4"] ;
57 -> 59 ;
60 [label="RevolvingUtilizationOfUnsecuredLines <= 0.625\nentropy = 0.997\nsamples = 3228\nvalue = [1711, 1517]\nclass = Financially Stable", fillcolor="#e581391d"] ;
56 -> 60 ;
61 [label="entropy = 0.899\nsamples = 950\nvalue = [651, 299]\nclass = Financially Stable", fillcolor="#e581398a"] ;
60 -> 61 ;
62 [label="entropy = 0.997\nsamples = 2278\nvalue = [1060, 1218]\nclass = Financial Distress", fillcolor="#399de521"] ;
60 -> 62 ;
}