digraph Tree {
node [shape=box, style="filled", color="black"] ;
0 [label="NumberOfTimes90DaysLate <= 0.5\nentropy = 0.638\nsamples = 30762\nvalue = [25792, 4970]\nclass = Financially Stable", fillcolor="#e58139ce"] ;
1 [label="MonthlyIncome <= 5461.5\nentropy = 0.515\nsamples = 28202\nvalue = [24956, 3246]\nclass = Financially Stable", fillcolor="#e58139de"] ;
0 -> 1 [labeldistance=2.5, labelangle=45, headlabel="True"] ;
2 [label="NumberOfTime30-59DaysPastDueNotWorse <= 0.5\nentropy = 0.595\nsamples = 11425\nvalue = [9776, 1649]\nclass = Financially Stable", fillcolor="#e58139d4"] ;
1 -> 2 ;
3 [label="NumberOfTime60-89DaysPastDueNotWorse <= 0.5\nentropy = 0.465\nsamples = 9392\nvalue = [8464, 928]\nclass = Financially Stable", fillcolor="#e58139e3"] ;
2 -> 3 ;
4 [label="DebtRatio <= 0.617\nentropy = 0.43\nsamples = 9098\nvalue = [8297, 801]\nclass = Financially Stable", fillcolor="#e58139e6"] ;
3 -> 4 ;
5 [label="entropy = 0.397\nsamples = 7014\nvalue = [6464, 550]\nclass = Financially Stable", fillcolor="#e58139e9"] ;
4 -> 5 ;
6 [label="entropy = 0.531\nsamples = 2084\nvalue = [1833, 251]\nclass = Financially Stable", fillcolor="#e58139dc"] ;
4 -> 6 ;
7 [label="NumberOfOpenCreditLinesAndLoans <= 6.5\nentropy = 0.987\nsamples = 294\nvalue = [167, 127]\nclass = Financially Stable", fillcolor="#e581393d"] ;
3 -> 7 ;
8 [label="entropy = 0.999\nsamples = 158\nvalue = [76, 82]\nclass = Financial Distress", fillcolor="#399de513"] ;
7 -> 8 ;
9 [label="entropy = 0.916\nsamples = 136\nvalue = [91, 45]\nclass = Financially Stable", fillcolor="#e5813981"] ;
7 -> 9 ;
10 [label="NumberOfDependents <= 1.5\nentropy = 0.938\nsamples = 2033\nvalue = [1312, 721]\nclass = Financially Stable", fillcolor="#e5813973"] ;
2 -> 10 ;
11 [label="NumberOfTime60-89DaysPastDueNotWorse <= 0.5\nentropy = 0.922\nsamples = 1502\nvalue = [996, 506]\nclass = Financially Stable", fillcolor="#e581397d"] ;
10 -> 11 ;
12 [label="entropy = 0.874\nsamples = 1266\nvalue = [894, 372]\nclass = Financially Stable", fillcolor="#e5813995"] ;
11 -> 12 ;
13 [label="entropy = 0.987\nsamples = 236\nvalue = [102, 134]\nclass = Financial Distress", fillcolor="#399de53d"] ;
11 -> 13 ;
14 [label="MonthlyIncome <= 1100.0\nentropy = 0.974\nsamples = 531\nvalue = [316, 215]\nclass = Financially Stable", fillcolor="#e5813952"] ;
10 -> 14 ;
15 [label="entropy = 0.773\nsamples = 22\nvalue = [17, 5]\nclass = Financially Stable", fillcolor="#e58139b4"] ;
14 -> 15 ;
16 [label="entropy = 0.978\nsamples = 509\nvalue = [299, 210]\nclass = Financially Stable", fillcolor="#e581394c"] ;
14 -> 16 ;
17 [label="NumberOfTime30-59DaysPastDueNotWorse <= 0.5\nentropy = 0.454\nsamples = 16777\nvalue = [15180, 1597]\nclass = Financially Stable", fillcolor="#e58139e4"] ;
1 -> 17 ;
18 [label="RevolvingUtilizationOfUnsecuredLines <= 0.278\nentropy = 0.334\nsamples = 14270\nvalue = [13389, 881]\nclass = Financially Stable", fillcolor="#e58139ee"] ;
17 -> 18 ;
19 [label="NumberRealEstateLoansOrLines <= 2.5\nentropy = 0.183\nsamples = 9741\nvalue = [9470, 271]\nclass = Financially Stable", fillcolor="#e58139f8"] ;
18 -> 19 ;
20 [label="entropy = 0.162\nsamples = 8944\nvalue = [8731, 213]\nclass = Financially Stable", fillcolor="#e58139f9"] ;
19 -> 20 ;
21 [label="entropy = 0.376\nsamples = 797\nvalue = [739, 58]\nclass = Financially Stable", fillcolor="#e58139eb"] ;
19 -> 21 ;
22 [label="RevolvingUtilizationOfUnsecuredLines <= 0.708\nentropy = 0.57\nsamples = 4529\nvalue = [3919, 610]\nclass = Financially Stable", fillcolor="#e58139d7"] ;
18 -> 22 ;
23 [label="entropy = 0.477\nsamples = 2771\nvalue = [2487, 284]\nclass = Financially Stable", fillcolor="#e58139e2"] ;
22 -> 23 ;
24 [label="entropy = 0.692\nsamples = 1758\nvalue = [1432, 326]\nclass = Financially Stable", fillcolor="#e58139c5"] ;
22 -> 24 ;
25 [label="RevolvingUtilizationOfUnsecuredLines <= 0.326\nentropy = 0.863\nsamples = 2507\nvalue = [1791, 716]\nclass = Financially Stable", fillcolor="#e5813999"] ;
17 -> 25 ;
26 [label="NumberOfTime30-59DaysPastDueNotWorse <= 2.5\nentropy = 0.646\nsamples = 1102\nvalue = [920, 182]\nclass = Financially Stable", fillcolor="#e58139cd"] ;
25 -> 26 ;
27 [label="entropy = 0.597\nsamples = 1013\nvalue = [866, 147]\nclass = Financially Stable", fillcolor="#e58139d4"] ;
26 -> 27 ;
28 [label="entropy = 0.967\nsamples = 89\nvalue = [54, 35]\nclass = Financially Stable", fillcolor="#e581395a"] ;
26 -> 28 ;
29 [label="NumberRealEstateLoansOrLines <= 2.5\nentropy = 0.958\nsamples = 1405\nvalue = [871, 534]\nclass = Financially Stable", fillcolor="#e5813963"] ;
25 -> 29 ;
30 [label="entropy = 0.947\nsamples = 1245\nvalue = [790, 455]\nclass = Financially Stable", fillcolor="#e581396c"] ;
29 -> 30 ;
31 [label="entropy = 1.0\nsamples = 160\nvalue = [81, 79]\nclass = Financially Stable", fillcolor="#e5813906"] ;
29 -> 31 ;
32 [label="RevolvingUtilizationOfUnsecuredLines <= 0.297\nentropy = 0.911\nsamples = 2560\nvalue = [836, 1724]\nclass = Financial Distress", fillcolor="#399de583"] ;
0 -> 32 [labeldistance=2.5, labelangle=-45, headlabel="False"] ;
33 [label="NumberOfTimes90DaysLate <= 1.5\nentropy = 0.996\nsamples = 389\nvalue = [209, 180]\nclass = Financially Stable", fillcolor="#e5813923"] ;
32 -> 33 ;
34 [label="RevolvingUtilizationOfUnsecuredLines <= 0.199\nentropy = 0.959\nsamples = 299\nvalue = [185, 114]\nclass = Financially Stable", fillcolor="#e5813962"] ;
33 -> 34 ;
35 [label="NumberOfTime60-89DaysPastDueNotWorse <= 0.5\nentropy = 0.936\nsamples = 247\nvalue = [160, 87]\nclass = Financially Stable", fillcolor="#e5813974"] ;
34 -> 35 ;
36 [label="entropy = 0.872\nsamples = 195\nvalue = [138, 57]\nclass = Financially Stable", fillcolor="#e5813996"] ;
35 -> 36 ;
37 [label="entropy = 0.983\nsamples = 52\nvalue = [22, 30]\nclass = Financial Distress", fillcolor="#399de544"] ;
35 -> 37 ;
38 [label="MonthlyIncome <= 2191.5\nentropy = 0.999\nsamples = 52\nvalue = [25, 27]\nclass = Financial Distress", fillcolor="#399de513"] ;
34 -> 38 ;
39 [label="entropy = 0.0\nsamples = 5\nvalue = [0, 5]\nclass = Financial Distress", fillcolor="#399de5ff"] ;
38 -> 39 ;
40 [label="entropy = 0.997\nsamples = 47\nvalue = [25, 22]\nclass = Financially Stable", fillcolor="#e581391f"] ;
38 -> 40 ;
41 [label="DebtRatio <= 417.5\nentropy = 0.837\nsamples = 90\nvalue = [24, 66]\nclass = Financial Distress", fillcolor="#399de5a2"] ;
33 -> 41 ;
42 [label="DebtRatio <= 0.002\nentropy = 0.717\nsamples = 81\nvalue = [16, 65]\nclass = Financial Distress", fillcolor="#399de5c0"] ;
41 -> 42 ;
43 [label="entropy = 0.918\nsamples = 3\nvalue = [2, 1]\nclass = Financially Stable", fillcolor="#e581397f"] ;
42 -> 43 ;
44 [label="entropy = 0.679\nsamples = 78\nvalue = [14, 64]\nclass = Financial Distress", fillcolor="#399de5c7"] ;
42 -> 44 ;
45 [label="RevolvingUtilizationOfUnsecuredLines <= 0.291\nentropy = 0.503\nsamples = 9\nvalue = [8, 1]\nclass = Financially Stable", fillcolor="#e58139df"] ;
41 -> 45 ;
46 [label="entropy = 0.0\nsamples = 8\nvalue = [8, 0]\nclass = Financially Stable", fillcolor="#e58139ff"] ;
45 -> 46 ;
47 [label="entropy = 0.0\nsamples = 1\nvalue = [0, 1]\nclass = Financial Distress", fillcolor="#399de5ff"] ;
45 -> 47 ;
48 [label="NumberRealEstateLoansOrLines <= 0.5\nentropy = 0.867\nsamples = 2171\nvalue = [627, 1544]\nclass = Financial Distress", fillcolor="#399de597"] ;
32 -> 48 ;
49 [label="NumberOfTimes90DaysLate <= 1.5\nentropy = 0.911\nsamples = 1335\nvalue = [435, 900]\nclass = Financial Distress", fillcolor="#399de584"] ;
48 -> 49 ;
50 [label="age <= 55.5\nentropy = 0.97\nsamples = 702\nvalue = [280, 422]\nclass = Financial Distress", fillcolor="#399de556"] ;
49 -> 50 ;
51 [label="entropy = 0.956\nsamples = 579\nvalue = [218, 361]\nclass = Financial Distress", fillcolor="#399de565"] ;
50 -> 51 ;
52 [label="entropy = 1.0\nsamples = 123\nvalue = [62, 61]\nclass = Financially Stable", fillcolor="#e5813904"] ;
50 -> 52 ;
53 [label="NumberOfTime30-59DaysPastDueNotWorse <= 1.5\nentropy = 0.803\nsamples = 633\nvalue = [155, 478]\nclass = Financial Distress", fillcolor="#399de5ac"] ;
49 -> 53 ;
54 [label="entropy = 0.855\nsamples = 429\nvalue = [120, 309]\nclass = Financial Distress", fillcolor="#399de59c"] ;
53 -> 54 ;
55 [label="entropy = 0.661\nsamples = 204\nvalue = [35, 169]\nclass = Financial Distress", fillcolor="#399de5ca"] ;
53 -> 55 ;
56 [label="NumberOfTime60-89DaysPastDueNotWorse <= 1.5\nentropy = 0.777\nsamples = 836\nvalue = [192, 644]\nclass = Financial Distress", fillcolor="#399de5b3"] ;
48 -> 56 ;
57 [label="DebtRatio <= 0.26\nentropy = 0.845\nsamples = 668\nvalue = [182, 486]\nclass = Financial Distress", fillcolor="#399de5a0"] ;
56 -> 57 ;
58 [label="entropy = 0.966\nsamples = 74\nvalue = [29, 45]\nclass = Financial Distress", fillcolor="#399de55b"] ;
57 -> 58 ;
59 [label="entropy = 0.823\nsamples = 594\nvalue = [153, 441]\nclass = Financial Distress", fillcolor="#399de5a7"] ;
57 -> 59 ;
60 [label="DebtRatio <= 0.428\nentropy = 0.326\nsamples = 168\nvalue = [10, 158]\nclass = Financial Distress", fillcolor="#399de5ef"] ;
56 -> 60 ;
61 [label="entropy = 0.675\nsamples = 45\nvalue = [8, 37]\nclass = Financial Distress", fillcolor="#399de5c8"] ;
60 -> 61 ;
62 [label="entropy = 0.12\nsamples = 123\nvalue = [2, 121]\nclass = Financial Distress", fillcolor="#399de5fb"] ;
60 -> 62 ;
}