digraph Tree {
node [shape=box, style="filled", color="black"] ;
0 [label="RevolvingUtilizationOfUnsecuredLines <= 0.325\nentropy = 0.638\nsamples = 30762\nvalue = [25794, 4968]\nclass = Financially Stable", fillcolor="#e58139ce"] ;
1 [label="NumberOfTimes90DaysLate <= 0.5\nentropy = 0.321\nsamples = 18296\nvalue = [17230, 1066]\nclass = Financially Stable", fillcolor="#e58139ef"] ;
0 -> 1 [labeldistance=2.5, labelangle=45, headlabel="True"] ;
2 [label="NumberOfOpenCreditLinesAndLoans <= 9.5\nentropy = 0.279\nsamples = 17892\nvalue = [17028, 864]\nclass = Financially Stable", fillcolor="#e58139f2"] ;
1 -> 2 ;
3 [label="NumberOfTime60-89DaysPastDueNotWorse <= 0.5\nentropy = 0.223\nsamples = 11165\nvalue = [10764, 401]\nclass = Financially Stable", fillcolor="#e58139f6"] ;
2 -> 3 ;
4 [label="age <= 54.5\nentropy = 0.202\nsamples = 10959\nvalue = [10614, 345]\nclass = Financially Stable", fillcolor="#e58139f7"] ;
3 -> 4 ;
5 [label="entropy = 0.258\nsamples = 5561\nvalue = [5319, 242]\nclass = Financially Stable", fillcolor="#e58139f3"] ;
4 -> 5 ;
6 [label="entropy = 0.136\nsamples = 5398\nvalue = [5295, 103]\nclass = Financially Stable", fillcolor="#e58139fa"] ;
4 -> 6 ;
7 [label="DebtRatio <= 0.02\nentropy = 0.844\nsamples = 206\nvalue = [150, 56]\nclass = Financially Stable", fillcolor="#e58139a0"] ;
3 -> 7 ;
8 [label="entropy = 0.426\nsamples = 23\nvalue = [21, 2]\nclass = Financially Stable", fillcolor="#e58139e7"] ;
7 -> 8 ;
9 [label="entropy = 0.875\nsamples = 183\nvalue = [129, 54]\nclass = Financially Stable", fillcolor="#e5813994"] ;
7 -> 9 ;
10 [label="NumberOfTime30-59DaysPastDueNotWorse <= 0.5\nentropy = 0.362\nsamples = 6727\nvalue = [6264, 463]\nclass = Financially Stable", fillcolor="#e58139ec"] ;
2 -> 10 ;
11 [label="RevolvingUtilizationOfUnsecuredLines <= 0.038\nentropy = 0.282\nsamples = 5752\nvalue = [5471, 281]\nclass = Financially Stable", fillcolor="#e58139f2"] ;
10 -> 11 ;
12 [label="entropy = 0.187\nsamples = 2283\nvalue = [2218, 65]\nclass = Financially Stable", fillcolor="#e58139f8"] ;
11 -> 12 ;
13 [label="entropy = 0.336\nsamples = 3469\nvalue = [3253, 216]\nclass = Financially Stable", fillcolor="#e58139ee"] ;
11 -> 13 ;
14 [label="DebtRatio <= 0.515\nentropy = 0.694\nsamples = 975\nvalue = [793, 182]\nclass = Financially Stable", fillcolor="#e58139c4"] ;
10 -> 14 ;
15 [label="entropy = 0.626\nsamples = 581\nvalue = [490, 91]\nclass = Financially Stable", fillcolor="#e58139d0"] ;
14 -> 15 ;
16 [label="entropy = 0.78\nsamples = 394\nvalue = [303, 91]\nclass = Financially Stable", fillcolor="#e58139b2"] ;
14 -> 16 ;
17 [label="NumberOfTimes90DaysLate <= 1.5\nentropy = 1.0\nsamples = 404\nvalue = [202, 202]\nclass = Financially Stable", fillcolor="#e5813900"] ;
1 -> 17 ;
18 [label="NumberOfOpenCreditLinesAndLoans <= 1.5\nentropy = 0.976\nsamples = 305\nvalue = [180, 125]\nclass = Financially Stable", fillcolor="#e581394e"] ;
17 -> 18 ;
19 [label="MonthlyIncome <= 1750.0\nentropy = 0.65\nsamples = 6\nvalue = [1, 5]\nclass = Financial Distress", fillcolor="#399de5cc"] ;
18 -> 19 ;
20 [label="entropy = 0.0\nsamples = 1\nvalue = [1, 0]\nclass = Financially Stable", fillcolor="#e58139ff"] ;
19 -> 20 ;
21 [label="entropy = 0.0\nsamples = 5\nvalue = [0, 5]\nclass = Financial Distress", fillcolor="#399de5ff"] ;
19 -> 21 ;
22 [label="NumberOfTime60-89DaysPastDueNotWorse <= 0.5\nentropy = 0.972\nsamples = 299\nvalue = [179, 120]\nclass = Financially Stable", fillcolor="#e5813954"] ;
18 -> 22 ;
23 [label="entropy = 0.914\nsamples = 222\nvalue = [149, 73]\nclass = Financially Stable", fillcolor="#e5813982"] ;
22 -> 23 ;
24 [label="entropy = 0.965\nsamples = 77\nvalue = [30, 47]\nclass = Financial Distress", fillcolor="#399de55c"] ;
22 -> 24 ;
25 [label="NumberOfTime60-89DaysPastDueNotWorse <= 0.5\nentropy = 0.764\nsamples = 99\nvalue = [22, 77]\nclass = Financial Distress", fillcolor="#399de5b6"] ;
17 -> 25 ;
26 [label="age <= 29.0\nentropy = 0.907\nsamples = 62\nvalue = [20, 42]\nclass = Financial Distress", fillcolor="#399de586"] ;
25 -> 26 ;
27 [label="entropy = 0.0\nsamples = 6\nvalue = [0, 6]\nclass = Financial Distress", fillcolor="#399de5ff"] ;
26 -> 27 ;
28 [label="entropy = 0.94\nsamples = 56\nvalue = [20, 36]\nclass = Financial Distress", fillcolor="#399de571"] ;
26 -> 28 ;
29 [label="NumberRealEstateLoansOrLines <= 0.5\nentropy = 0.303\nsamples = 37\nvalue = [2, 35]\nclass = Financial Distress", fillcolor="#399de5f0"] ;
25 -> 29 ;
30 [label="entropy = 0.0\nsamples = 15\nvalue = [0, 15]\nclass = Financial Distress", fillcolor="#399de5ff"] ;
29 -> 30 ;
31 [label="entropy = 0.439\nsamples = 22\nvalue = [2, 20]\nclass = Financial Distress", fillcolor="#399de5e6"] ;
29 -> 31 ;
32 [label="NumberOfTime60-89DaysPastDueNotWorse <= 0.5\nentropy = 0.897\nsamples = 12466\nvalue = [8564, 3902]\nclass = Financially Stable", fillcolor="#e581398b"] ;
0 -> 32 [labeldistance=2.5, labelangle=-45, headlabel="False"] ;
33 [label="NumberOfTimes90DaysLate <= 0.5\nentropy = 0.814\nsamples = 10694\nvalue = [8000, 2694]\nclass = Financially Stable", fillcolor="#e58139a9"] ;
32 -> 33 ;
34 [label="age <= 51.5\nentropy = 0.715\nsamples = 9406\nvalue = [7558, 1848]\nclass = Financially Stable", fillcolor="#e58139c1"] ;
33 -> 34 ;
35 [label="NumberOfOpenCreditLinesAndLoans <= 11.5\nentropy = 0.764\nsamples = 5915\nvalue = [4601, 1314]\nclass = Financially Stable", fillcolor="#e58139b6"] ;
34 -> 35 ;
36 [label="entropy = 0.735\nsamples = 4825\nvalue = [3827, 998]\nclass = Financially Stable", fillcolor="#e58139bd"] ;
35 -> 36 ;
37 [label="entropy = 0.869\nsamples = 1090\nvalue = [774, 316]\nclass = Financially Stable", fillcolor="#e5813997"] ;
35 -> 37 ;
38 [label="NumberRealEstateLoansOrLines <= 0.5\nentropy = 0.617\nsamples = 3491\nvalue = [2957, 534]\nclass = Financially Stable", fillcolor="#e58139d1"] ;
34 -> 38 ;
39 [label="entropy = 0.691\nsamples = 1038\nvalue = [846, 192]\nclass = Financially Stable", fillcolor="#e58139c5"] ;
38 -> 39 ;
40 [label="entropy = 0.583\nsamples = 2453\nvalue = [2111, 342]\nclass = Financially Stable", fillcolor="#e58139d6"] ;
38 -> 40 ;
41 [label="RevolvingUtilizationOfUnsecuredLines <= 0.333\nentropy = 0.928\nsamples = 1288\nvalue = [442, 846]\nclass = Financial Distress", fillcolor="#399de57a"] ;
33 -> 41 ;
42 [label="NumberOfTimes90DaysLate <= 10.0\nentropy = 0.801\nsamples = 201\nvalue = [49, 152]\nclass = Financial Distress", fillcolor="#399de5ad"] ;
41 -> 42 ;
43 [label="entropy = 0.782\nsamples = 198\nvalue = [46, 152]\nclass = Financial Distress", fillcolor="#399de5b2"] ;
42 -> 43 ;
44 [label="entropy = 0.0\nsamples = 3\nvalue = [3, 0]\nclass = Financially Stable", fillcolor="#e58139ff"] ;
42 -> 44 ;
45 [label="age <= 58.5\nentropy = 0.944\nsamples = 1087\nvalue = [393, 694]\nclass = Financial Distress", fillcolor="#399de56f"] ;
41 -> 45 ;
46 [label="entropy = 0.929\nsamples = 937\nvalue = [323, 614]\nclass = Financial Distress", fillcolor="#399de579"] ;
45 -> 46 ;
47 [label="entropy = 0.997\nsamples = 150\nvalue = [70, 80]\nclass = Financial Distress", fillcolor="#399de520"] ;
45 -> 47 ;
48 [label="NumberOfTime30-59DaysPastDueNotWorse <= 2.5\nentropy = 0.903\nsamples = 1772\nvalue = [564, 1208]\nclass = Financial Distress", fillcolor="#399de588"] ;
32 -> 48 ;
49 [label="NumberOfTime60-89DaysPastDueNotWorse <= 1.5\nentropy = 0.938\nsamples = 1347\nvalue = [477, 870]\nclass = Financial Distress", fillcolor="#399de573"] ;
48 -> 49 ;
50 [label="NumberOfTimes90DaysLate <= 0.5\nentropy = 0.975\nsamples = 1004\nvalue = [409, 595]\nclass = Financial Distress", fillcolor="#399de550"] ;
49 -> 50 ;
51 [label="entropy = 0.998\nsamples = 597\nvalue = [316, 281]\nclass = Financially Stable", fillcolor="#e581391c"] ;
50 -> 51 ;
52 [label="entropy = 0.775\nsamples = 407\nvalue = [93, 314]\nclass = Financial Distress", fillcolor="#399de5b3"] ;
50 -> 52 ;
53 [label="DebtRatio <= 674.0\nentropy = 0.718\nsamples = 343\nvalue = [68, 275]\nclass = Financial Distress", fillcolor="#399de5c0"] ;
49 -> 53 ;
54 [label="entropy = 0.774\nsamples = 294\nvalue = [67, 227]\nclass = Financial Distress", fillcolor="#399de5b4"] ;
53 -> 54 ;
55 [label="entropy = 0.144\nsamples = 49\nvalue = [1, 48]\nclass = Financial Distress", fillcolor="#399de5fa"] ;
53 -> 55 ;
56 [label="age <= 23.5\nentropy = 0.731\nsamples = 425\nvalue = [87, 338]\nclass = Financial Distress", fillcolor="#399de5bd"] ;
48 -> 56 ;
57 [label="MonthlyIncome <= 833.5\nentropy = 0.994\nsamples = 11\nvalue = [5, 6]\nclass = Financial Distress", fillcolor="#399de52a"] ;
56 -> 57 ;
58 [label="entropy = 0.0\nsamples = 1\nvalue = [0, 1]\nclass = Financial Distress", fillcolor="#399de5ff"] ;
57 -> 58 ;
59 [label="entropy = 1.0\nsamples = 10\nvalue = [5, 5]\nclass = Financially Stable", fillcolor="#e5813900"] ;
57 -> 59 ;
60 [label="NumberOfOpenCreditLinesAndLoans <= 1.5\nentropy = 0.718\nsamples = 414\nvalue = [82, 332]\nclass = Financial Distress", fillcolor="#399de5c0"] ;
56 -> 60 ;
61 [label="entropy = 0.494\nsamples = 74\nvalue = [8, 66]\nclass = Financial Distress", fillcolor="#399de5e0"] ;
60 -> 61 ;
62 [label="entropy = 0.756\nsamples = 340\nvalue = [74, 266]\nclass = Financial Distress", fillcolor="#399de5b8"] ;
60 -> 62 ;
}