digraph Tree {
node [shape=box, style="filled", color="black"] ;
0 [label="NumberOfTimes90DaysLate <= 0.5\nentropy = 0.639\nsamples = 30762\nvalue = [25779, 4983]\nclass = Financially Stable", fillcolor="#e58139ce"] ;
1 [label="RevolvingUtilizationOfUnsecuredLines <= 0.325\nentropy = 0.515\nsamples = 28188\nvalue = [24949, 3239]\nclass = Financially Stable", fillcolor="#e58139de"] ;
0 -> 1 [labeldistance=2.5, labelangle=45, headlabel="True"] ;
2 [label="NumberOfTime30-59DaysPastDueNotWorse <= 0.5\nentropy = 0.28\nsamples = 17855\nvalue = [16991, 864]\nclass = Financially Stable", fillcolor="#e58139f2"] ;
1 -> 2 ;
3 [label="NumberOfTime60-89DaysPastDueNotWorse <= 0.5\nentropy = 0.214\nsamples = 15990\nvalue = [15446, 544]\nclass = Financially Stable", fillcolor="#e58139f6"] ;
2 -> 3 ;
4 [label="age <= 48.5\nentropy = 0.199\nsamples = 15746\nvalue = [15259, 487]\nclass = Financially Stable", fillcolor="#e58139f7"] ;
3 -> 4 ;
5 [label="entropy = 0.278\nsamples = 5318\nvalue = [5063, 255]\nclass = Financially Stable", fillcolor="#e58139f2"] ;
4 -> 5 ;
6 [label="entropy = 0.154\nsamples = 10428\nvalue = [10196, 232]\nclass = Financially Stable", fillcolor="#e58139f9"] ;
4 -> 6 ;
7 [label="DebtRatio <= 807.5\nentropy = 0.784\nsamples = 244\nvalue = [187, 57]\nclass = Financially Stable", fillcolor="#e58139b1"] ;
3 -> 7 ;
8 [label="entropy = 0.822\nsamples = 222\nvalue = [165, 57]\nclass = Financially Stable", fillcolor="#e58139a7"] ;
7 -> 8 ;
9 [label="entropy = 0.0\nsamples = 22\nvalue = [22, 0]\nclass = Financially Stable", fillcolor="#e58139ff"] ;
7 -> 9 ;
10 [label="NumberOfTime60-89DaysPastDueNotWorse <= 0.5\nentropy = 0.661\nsamples = 1865\nvalue = [1545, 320]\nclass = Financially Stable", fillcolor="#e58139ca"] ;
2 -> 10 ;
11 [label="NumberOfTime30-59DaysPastDueNotWorse <= 1.5\nentropy = 0.606\nsamples = 1705\nvalue = [1452, 253]\nclass = Financially Stable", fillcolor="#e58139d3"] ;
10 -> 11 ;
12 [label="entropy = 0.516\nsamples = 1319\nvalue = [1167, 152]\nclass = Financially Stable", fillcolor="#e58139de"] ;
11 -> 12 ;
13 [label="entropy = 0.829\nsamples = 386\nvalue = [285, 101]\nclass = Financially Stable", fillcolor="#e58139a5"] ;
11 -> 13 ;
14 [label="NumberRealEstateLoansOrLines <= 2.5\nentropy = 0.981\nsamples = 160\nvalue = [93, 67]\nclass = Financially Stable", fillcolor="#e5813947"] ;
10 -> 14 ;
15 [label="entropy = 0.965\nsamples = 146\nvalue = [89, 57]\nclass = Financially Stable", fillcolor="#e581395c"] ;
14 -> 15 ;
16 [label="entropy = 0.863\nsamples = 14\nvalue = [4, 10]\nclass = Financial Distress", fillcolor="#399de599"] ;
14 -> 16 ;
17 [label="NumberOfTime30-59DaysPastDueNotWorse <= 0.5\nentropy = 0.778\nsamples = 10333\nvalue = [7958, 2375]\nclass = Financially Stable", fillcolor="#e58139b3"] ;
1 -> 17 ;
18 [label="NumberOfTime60-89DaysPastDueNotWorse <= 0.5\nentropy = 0.649\nsamples = 7602\nvalue = [6338, 1264]\nclass = Financially Stable", fillcolor="#e58139cc"] ;
17 -> 18 ;
19 [label="RevolvingUtilizationOfUnsecuredLines <= 0.703\nentropy = 0.612\nsamples = 7242\nvalue = [6148, 1094]\nclass = Financially Stable", fillcolor="#e58139d2"] ;
18 -> 19 ;
20 [label="entropy = 0.517\nsamples = 3969\nvalue = [3509, 460]\nclass = Financially Stable", fillcolor="#e58139de"] ;
19 -> 20 ;
21 [label="entropy = 0.709\nsamples = 3273\nvalue = [2639, 634]\nclass = Financially Stable", fillcolor="#e58139c2"] ;
19 -> 21 ;
22 [label="MonthlyIncome <= 10958.5\nentropy = 0.998\nsamples = 360\nvalue = [190, 170]\nclass = Financially Stable", fillcolor="#e581391b"] ;
18 -> 22 ;
23 [label="entropy = 1.0\nsamples = 338\nvalue = [172, 166]\nclass = Financially Stable", fillcolor="#e5813909"] ;
22 -> 23 ;
24 [label="entropy = 0.684\nsamples = 22\nvalue = [18, 4]\nclass = Financially Stable", fillcolor="#e58139c6"] ;
22 -> 24 ;
25 [label="NumberOfTime60-89DaysPastDueNotWorse <= 0.5\nentropy = 0.975\nsamples = 2731\nvalue = [1620, 1111]\nclass = Financially Stable", fillcolor="#e5813950"] ;
17 -> 25 ;
26 [label="NumberOfTime30-59DaysPastDueNotWorse <= 1.5\nentropy = 0.944\nsamples = 2193\nvalue = [1400, 793]\nclass = Financially Stable", fillcolor="#e581396f"] ;
25 -> 26 ;
27 [label="entropy = 0.887\nsamples = 1426\nvalue = [991, 435]\nclass = Financially Stable", fillcolor="#e581398f"] ;
26 -> 27 ;
28 [label="entropy = 0.997\nsamples = 767\nvalue = [409, 358]\nclass = Financially Stable", fillcolor="#e5813920"] ;
26 -> 28 ;
29 [label="NumberOfTime60-89DaysPastDueNotWorse <= 1.5\nentropy = 0.976\nsamples = 538\nvalue = [220, 318]\nclass = Financial Distress", fillcolor="#399de54f"] ;
25 -> 29 ;
30 [label="entropy = 0.999\nsamples = 395\nvalue = [190, 205]\nclass = Financial Distress", fillcolor="#399de513"] ;
29 -> 30 ;
31 [label="entropy = 0.741\nsamples = 143\nvalue = [30, 113]\nclass = Financial Distress", fillcolor="#399de5bb"] ;
29 -> 31 ;
32 [label="NumberOfTimes90DaysLate <= 1.5\nentropy = 0.907\nsamples = 2574\nvalue = [830, 1744]\nclass = Financial Distress", fillcolor="#399de586"] ;
0 -> 32 [labeldistance=2.5, labelangle=-45, headlabel="False"] ;
33 [label="RevolvingUtilizationOfUnsecuredLines <= 0.275\nentropy = 0.975\nsamples = 1496\nvalue = [610, 886]\nclass = Financial Distress", fillcolor="#399de54f"] ;
32 -> 33 ;
34 [label="NumberOfTime60-89DaysPastDueNotWorse <= 0.5\nentropy = 0.946\nsamples = 294\nvalue = [187, 107]\nclass = Financially Stable", fillcolor="#e581396d"] ;
33 -> 34 ;
35 [label="age <= 65.5\nentropy = 0.885\nsamples = 221\nvalue = [154, 67]\nclass = Financially Stable", fillcolor="#e5813990"] ;
34 -> 35 ;
36 [label="entropy = 0.925\nsamples = 185\nvalue = [122, 63]\nclass = Financially Stable", fillcolor="#e581397b"] ;
35 -> 36 ;
37 [label="entropy = 0.503\nsamples = 36\nvalue = [32, 4]\nclass = Financially Stable", fillcolor="#e58139df"] ;
35 -> 37 ;
38 [label="age <= 87.0\nentropy = 0.993\nsamples = 73\nvalue = [33, 40]\nclass = Financial Distress", fillcolor="#399de52d"] ;
34 -> 38 ;
39 [label="entropy = 0.999\nsamples = 68\nvalue = [33, 35]\nclass = Financial Distress", fillcolor="#399de50f"] ;
38 -> 39 ;
40 [label="entropy = 0.0\nsamples = 5\nvalue = [0, 5]\nclass = Financial Distress", fillcolor="#399de5ff"] ;
38 -> 40 ;
41 [label="NumberOfTime60-89DaysPastDueNotWorse <= 0.5\nentropy = 0.936\nsamples = 1202\nvalue = [423, 779]\nclass = Financial Distress", fillcolor="#399de575"] ;
33 -> 41 ;
42 [label="NumberOfTime30-59DaysPastDueNotWorse <= 1.5\nentropy = 0.976\nsamples = 812\nvalue = [332, 480]\nclass = Financial Distress", fillcolor="#399de54f"] ;
41 -> 42 ;
43 [label="entropy = 0.993\nsamples = 630\nvalue = [283, 347]\nclass = Financial Distress", fillcolor="#399de52f"] ;
42 -> 43 ;
44 [label="entropy = 0.84\nsamples = 182\nvalue = [49, 133]\nclass = Financial Distress", fillcolor="#399de5a1"] ;
42 -> 44 ;
45 [label="NumberOfOpenCreditLinesAndLoans <= 2.5\nentropy = 0.784\nsamples = 390\nvalue = [91, 299]\nclass = Financial Distress", fillcolor="#399de5b1"] ;
41 -> 45 ;
46 [label="entropy = 0.951\nsamples = 73\nvalue = [27, 46]\nclass = Financial Distress", fillcolor="#399de569"] ;
45 -> 46 ;
47 [label="entropy = 0.726\nsamples = 317\nvalue = [64, 253]\nclass = Financial Distress", fillcolor="#399de5be"] ;
45 -> 47 ;
48 [label="NumberOfTime60-89DaysPastDueNotWorse <= 1.5\nentropy = 0.73\nsamples = 1078\nvalue = [220, 858]\nclass = Financial Distress", fillcolor="#399de5be"] ;
32 -> 48 ;
49 [label="DebtRatio <= 0.003\nentropy = 0.79\nsamples = 815\nvalue = [193, 622]\nclass = Financial Distress", fillcolor="#399de5b0"] ;
48 -> 49 ;
50 [label="age <= 28.5\nentropy = 0.995\nsamples = 35\nvalue = [19, 16]\nclass = Financially Stable", fillcolor="#e5813928"] ;
49 -> 50 ;
51 [label="entropy = 0.0\nsamples = 5\nvalue = [5, 0]\nclass = Financially Stable", fillcolor="#e58139ff"] ;
50 -> 51 ;
52 [label="entropy = 0.997\nsamples = 30\nvalue = [14, 16]\nclass = Financial Distress", fillcolor="#399de520"] ;
50 -> 52 ;
53 [label="MonthlyIncome <= 1180.0\nentropy = 0.766\nsamples = 780\nvalue = [174, 606]\nclass = Financial Distress", fillcolor="#399de5b6"] ;
49 -> 53 ;
54 [label="entropy = 0.0\nsamples = 19\nvalue = [0, 19]\nclass = Financial Distress", fillcolor="#399de5ff"] ;
53 -> 54 ;
55 [label="entropy = 0.776\nsamples = 761\nvalue = [174, 587]\nclass = Financial Distress", fillcolor="#399de5b3"] ;
53 -> 55 ;
56 [label="DebtRatio <= 0.428\nentropy = 0.477\nsamples = 263\nvalue = [27, 236]\nclass = Financial Distress", fillcolor="#399de5e2"] ;
48 -> 56 ;
57 [label="NumberOfDependents <= 1.5\nentropy = 0.636\nsamples = 143\nvalue = [23, 120]\nclass = Financial Distress", fillcolor="#399de5ce"] ;
56 -> 57 ;
58 [label="entropy = 0.718\nsamples = 111\nvalue = [22, 89]\nclass = Financial Distress", fillcolor="#399de5c0"] ;
57 -> 58 ;
59 [label="entropy = 0.201\nsamples = 32\nvalue = [1, 31]\nclass = Financial Distress", fillcolor="#399de5f7"] ;
57 -> 59 ;
60 [label="NumberRealEstateLoansOrLines <= 0.5\nentropy = 0.211\nsamples = 120\nvalue = [4, 116]\nclass = Financial Distress", fillcolor="#399de5f6"] ;
56 -> 60 ;
61 [label="entropy = 0.503\nsamples = 36\nvalue = [4, 32]\nclass = Financial Distress", fillcolor="#399de5df"] ;
60 -> 61 ;
62 [label="entropy = 0.0\nsamples = 84\nvalue = [0, 84]\nclass = Financial Distress", fillcolor="#399de5ff"] ;
60 -> 62 ;
}